[
    {
        "L": 5
    },
    {
        "layer": "sage",
        "in_channels": 7,
        "out_channels": 16,
        "w1": [
            [
                0.19082850217819214,
                -1.717163217174189e-11,
                -0.11587744206190109,
                3.186665861742988e-11,
                -2.3792582487525138e-11,
                1.9597394540493696e-10,
                5.101491451497964e-11
            ],
            [
                0.08125133067369461,
                -0.40958330035209656,
                -0.31672850251197815,
                -0.1872054487466812,
                -6.589977695481419e-12,
                -0.21126331388950348,
                0.0873417928814888
            ],
            [
                -0.20220637321472168,
                0.20599360764026642,
                -0.008651689626276493,
                0.13867473602294922,
                2.7981991723713406e-11,
                0.13114959001541138,
                3.068410525663978e-10
            ],
            [
                0.20554327964782715,
                -0.28439390659332275,
                0.1853703260421753,
                -0.16972695291042328,
                -4.016177113097541e-10,
                0.26957327127456665,
                -0.08734878152608871
            ],
            [
                0.22064049541950226,
                -0.3401435613632202,
                -0.22044165432453156,
                -0.1171129047870636,
                -8.646852678317885e-11,
                -0.1422196924686432,
                0.04303578659892082
            ],
            [
                -0.1438133865594864,
                0.10192015767097473,
                0.39754804968833923,
                -0.007686472963541746,
                3.245609059288057e-10,
                4.5249823332760286e-10,
                8.731045400556248e-13
            ],
            [
                1.0778700848534939e-11,
                2.524626861732937e-11,
                0.16841550171375275,
                1.934627041899617e-10,
                -9.736689753070404e-12,
                1.1287302689733103e-11,
                7.376754068699753e-11
            ],
            [
                -0.17050200700759888,
                0.12144561856985092,
                0.3894020915031433,
                -0.2012864649295807,
                6.908525834736778e-11,
                -0.09759838134050369,
                -0.0021450696513056755
            ],
            [
                -2.0580288861982154e-10,
                4.869456574074782e-11,
                4.5701255280139463e-11,
                -2.304737650726807e-11,
                3.746954135852576e-12,
                0.010745382867753506,
                -3.8109307376466006e-11
            ],
            [
                0.045218776911497116,
                0.2650742828845978,
                0.06683818995952606,
                0.1678362488746643,
                8.754148794754002e-11,
                0.12483344227075577,
                -0.007105900906026363
            ],
            [
                0.08174783736467361,
                -0.18483874201774597,
                -0.17495876550674438,
                -1.7601339830086715e-10,
                -8.694070463555192e-11,
                1.9884642543654962e-10,
                0.04585137963294983
            ],
            [
                0.12022583931684494,
                -0.15865440666675568,
                -0.17551830410957336,
                -0.16137580573558807,
                2.6517338325149353e-10,
                -0.07230360060930252,
                0.014834077097475529
            ],
            [
                -0.27910116314888,
                -0.39847326278686523,
                -0.03099997527897358,
                -0.02940145507454872,
                3.767702538848283e-10,
                -0.16692964732646942,
                0.20913203060626984
            ],
            [
                -0.34123924374580383,
                -0.11896704882383347,
                -0.43716195225715637,
                -0.22915981709957123,
                -3.843077245324622e-10,
                0.07555826008319855,
                0.05673481896519661
            ],
            [
                -0.0863269716501236,
                2.813437705029287e-09,
                3.549653626588878e-12,
                -1.9059077233096744e-12,
                -1.5219595028703736e-10,
                0.5199532508850098,
                4.4788456277089495e-10
            ],
            [
                -0.43257832527160645,
                0.04138350114226341,
                0.08098667860031128,
                0.17662066221237183,
                7.636710014358172e-11,
                -0.02050742320716381,
                0.15805256366729736
            ]
        ],
        "w2": [
            [
                -0.22547388076782227,
                0.46567273139953613,
                -6.595944623821737e-11,
                -2.664558573783893e-10,
                1.5288272384172963e-11,
                2.4015206490091145e-10,
                1.4903803885468747e-11
            ],
            [
                0.19333675503730774,
                0.1383790820837021,
                -0.2513244152069092,
                -0.4614308178424835,
                -8.454367761423498e-11,
                -0.234290212392807,
                0.3351098597049713
            ],
            [
                0.067057304084301,
                -0.10131833702325821,
                0.41042935848236084,
                0.2143164575099945,
                -9.290566579944759e-12,
                4.83009916785182e-11,
                0.0610964410007
            ],
            [
                -0.20349113643169403,
                -0.14129391312599182,
                0.21326248347759247,
                0.3668442666530609,
                -6.160913446073835e-11,
                0.12457937747240067,
                -0.12652724981307983
            ],
            [
                0.13616156578063965,
                -0.5107803344726562,
                -0.5143973231315613,
                -0.41734039783477783,
                -1.4710008211515913e-10,
                -0.042826324701309204,
                0.13903053104877472
            ],
            [
                -0.3588387072086334,
                -0.1891668438911438,
                0.2402668446302414,
                9.365548614415076e-11,
                -2.794383058279948e-10,
                1.8073410823493674e-10,
                -8.6648174746351e-11
            ],
            [
                -0.04662300646305084,
                -2.7173510663836e-10,
                1.1513918984906724e-10,
                -9.390843658252379e-11,
                3.470856657639132e-10,
                -1.456530035470749e-10,
                -5.6073739401751865e-11
            ],
            [
                0.2223999798297882,
                -0.32006511092185974,
                -0.009641675278544426,
                0.01732540689408779,
                5.3969335944703545e-11,
                0.32442453503608704,
                -0.01789811998605728
            ],
            [
                -0.013652346096932888,
                9.90996104621722e-11,
                1.5630946537115165e-10,
                2.539023158387721e-10,
                3.7398248386999455e-10,
                -2.3494292622494584e-10,
                2.8443686642121158e-11
            ],
            [
                0.0763072669506073,
                -0.3421318233013153,
                -0.06656429916620255,
                -0.0782819464802742,
                -2.338403776169784e-12,
                0.16243578493595123,
                -0.06175125390291214
            ],
            [
                -0.1320931315422058,
                0.243891179561615,
                0.1284850388765335,
                4.235665707064129e-10,
                -1.839391833291515e-11,
                -0.0038171247579157352,
                -1.9672283087857068e-05
            ],
            [
                0.0230840016156435,
                -0.258465975522995,
                0.0828796774148941,
                -0.10373356193304062,
                -1.5873477532402092e-10,
                -0.13939227163791656,
                0.24178571999073029
            ],
            [
                -0.006325106136500835,
                0.06793723255395889,
                -0.4024135172367096,
                0.07140285521745682,
                1.9574498272278973e-11,
                0.07193426042795181,
                0.39564162492752075
            ],
            [
                0.3571505844593048,
                0.3351893723011017,
                0.2721794545650482,
                -0.12262186408042908,
                2.1341156619669732e-10,
                -0.11559809744358063,
                0.10456742346286774
            ],
            [
                0.018563104793429375,
                -1.1997372539873652e-10,
                -8.309550270091393e-11,
                6.149118020326583e-11,
                1.164334184622362e-10,
                -1.8783387345511215e-10,
                1.0867526323288246e-10
            ],
            [
                0.35328128933906555,
                -0.004429903347045183,
                0.1355566382408142,
                -0.2232038676738739,
                -6.547257874744972e-11,
                -0.01678348332643509,
                0.2574208378791809
            ]
        ],
        "b": [
            -0.3591900169849396,
            0.19342903792858124,
            -0.30439919233322144,
            0.3776037395000458,
            -0.013317856937646866,
            0.2487436980009079,
            -0.20693175494670868,
            0.27234402298927307,
            -0.01281627919524908,
            0.12276285886764526,
            -0.27620455622673035,
            0.08609021455049515,
            0.10528512299060822,
            -0.11099186539649963,
            -0.15471771359443665,
            -0.2945522964000702
        ],
        "activation": true
    },
    {
        "layer": "sage",
        "in_channels": 16,
        "out_channels": 16,
        "w1": [
            [
                -0.5059628486633301,
                0.1574394702911377,
                -0.15303438901901245,
                -0.020014408975839615,
                0.22412845492362976,
                -0.19271422922611237,
                -2.413486077657012e-10,
                0.26279982924461365,
                -2.949871250046421e-12,
                -0.018529219552874565,
                -0.01304015051573515,
                0.03862084448337555,
                -0.10382033884525299,
                -0.12475351244211197,
                0.23505818843841553,
                -0.2340262085199356
            ],
            [
                -0.295817494392395,
                0.13926208019256592,
                -0.06467986851930618,
                -0.11665896326303482,
                0.22218015789985657,
                -0.08536919951438904,
                1.3556954170379498e-10,
                -0.22618693113327026,
                -9.967385944387175e-11,
                0.07168033719062805,
                -0.11659086495637894,
                -0.2659519910812378,
                0.20641371607780457,
                0.02978505939245224,
                3.9335887325187e-10,
                -0.07363724708557129
            ],
            [
                1.5140345510644693e-07,
                -3.220926600988605e-06,
                -0.025624284520745277,
                -0.033393021672964096,
                3.4882270938396687e-07,
                -0.03141852468252182,
                1.813003566719651e-11,
                -0.04784712567925453,
                3.4828216699533954e-13,
                -0.0056838965974748135,
                -1.0247038517263718e-05,
                -4.95572567160707e-06,
                -0.0006948253139853477,
                -0.02875111810863018,
                1.3948878510583462e-11,
                -0.00020978815155103803
            ],
            [
                -5.677304737439215e-10,
                4.6759685012887076e-09,
                1.4099388323529638e-10,
                3.2778441072522924e-10,
                8.292288730671338e-12,
                1.5745568737735027e-10,
                -1.6398192526079214e-10,
                -0.0007836073637008667,
                6.827433063349986e-11,
                -6.486079229262032e-08,
                5.365863864348341e-10,
                9.658551736180243e-11,
                1.3027801060161437e-10,
                -3.686614491016371e-06,
                -1.2260353843274174e-10,
                6.302374733202498e-10
            ],
            [
                -2.3868958892725445e-11,
                2.360586726091185e-11,
                -0.002215615240857005,
                -0.0003108204109594226,
                7.720891981310984e-11,
                1.4576671958366205e-07,
                -2.4199812292957645e-11,
                -0.00735391303896904,
                -1.791996551148145e-10,
                -8.705557411303744e-05,
                -2.9718957850199956e-10,
                -2.3686042016635156e-09,
                -5.253426166307307e-11,
                -0.0006397094111889601,
                5.923326412693442e-11,
                3.7243712558421294e-09
            ],
            [
                -0.025355717167258263,
                -0.22920963168144226,
                -0.21685795485973358,
                -0.2559196650981903,
                -0.027189379557967186,
                -0.29387983679771423,
                -9.848802329237571e-12,
                -0.11797390133142471,
                -2.2802563656720842e-11,
                -0.034126732498407364,
                -0.09358391910791397,
                -0.09185884147882462,
                -0.2763732373714447,
                -0.1656150370836258,
                -0.03905950114130974,
                0.3037453591823578
            ],
            [
                -0.6716075539588928,
                -0.06462115049362183,
                -0.14400944113731384,
                -0.4492979943752289,
                -0.09585121273994446,
                -0.008663498796522617,
                7.195592732767153e-11,
                -0.13325466215610504,
                -5.575558070791686e-11,
                -0.15028506517410278,
                -0.18682080507278442,
                -0.36966022849082947,
                -0.038385000079870224,
                -0.2062443643808365,
                1.431555568531806e-11,
                0.4049757719039917
            ],
            [
                -0.6477025151252747,
                0.2932865023612976,
                0.1762736439704895,
                0.07369956374168396,
                0.35810428857803345,
                -0.08742614835500717,
                -1.877312888476368e-11,
                -0.10787259042263031,
                6.627734472353097e-11,
                0.29341062903404236,
                -0.14347101747989655,
                0.19332562386989594,
                0.016515251249074936,
                -0.1003727912902832,
                5.550599216364027e-11,
                -0.6609787344932556
            ],
            [
                -0.13203173875808716,
                -0.1654667854309082,
                -0.12031366676092148,
                -0.28598612546920776,
                0.12754811346530914,
                -0.3199189603328705,
                6.688447018454724e-11,
                -0.10407005995512009,
                4.0661043976264466e-11,
                0.13434407114982605,
                -0.2520422041416168,
                -0.20214231312274933,
                0.17934739589691162,
                0.07122787088155746,
                0.0019101857906207442,
                0.30228063464164734
            ],
            [
                0.10005398839712143,
                0.12958821654319763,
                0.14869053661823273,
                0.063080795109272,
                -0.2531065344810486,
                -0.11897588521242142,
                -1.066804630744933e-10,
                0.11086756736040115,
                3.4123110587147565e-11,
                0.04638804867863655,
                -0.006228196434676647,
                -0.17607013881206512,
                0.11811994761228561,
                0.05724095180630684,
                0.051069483160972595,
                0.03457609936594963
            ],
            [
                -0.26728397607803345,
                -0.19520509243011475,
                0.10149126499891281,
                0.01625761389732361,
                0.1952563226222992,
                -0.022153271362185478,
                -1.1831423341046587e-10,
                -0.09963966906070709,
                1.5485532300907323e-10,
                -0.22549176216125488,
                -0.04072655364871025,
                0.043753594160079956,
                -0.19043371081352234,
                -0.09219839423894882,
                -0.08148637413978577,
                0.008598034270107746
            ],
            [
                -1.1010249656440152e-10,
                0.021595735102891922,
                0.13720203936100006,
                -0.11995574086904526,
                -0.1373721957206726,
                0.1066884696483612,
                6.771631866353545e-13,
                0.031183412298560143,
                1.285429818143058e-10,
                0.08803104609251022,
                -0.13943007588386536,
                -0.017116673290729523,
                0.05418809503316879,
                -0.2097124308347702,
                6.404048819019792e-11,
                -0.032476939260959625
            ],
            [
                0.14083923399448395,
                0.1644359678030014,
                0.0739360898733139,
                -0.10148303210735321,
                -0.28381454944610596,
                0.07770175486803055,
                -1.2219333878071836e-10,
                -0.23470306396484375,
                6.081833647808566e-11,
                0.12771287560462952,
                0.10293645411729813,
                0.11247255653142929,
                -0.26799967885017395,
                -0.06553567200899124,
                3.799893288913836e-09,
                0.11253788322210312
            ],
            [
                0.052733659744262695,
                -0.014518000185489655,
                -0.17764349281787872,
                -0.29064878821372986,
                -0.2971609830856323,
                -0.027694007381796837,
                -2.1168697003637327e-11,
                0.10806888341903687,
                -5.924252755029613e-11,
                -0.013826344162225723,
                -0.02020629122853279,
                0.10528837144374847,
                0.0935773104429245,
                -0.04953889921307564,
                4.7823914967048964e-11,
                -0.05876065418124199
            ],
            [
                -0.09248679876327515,
                -0.3288778066635132,
                0.11906232684850693,
                -0.026184361428022385,
                -0.11713103950023651,
                0.005661190953105688,
                1.239489066939825e-11,
                -0.18843382596969604,
                2.1884152476281393e-11,
                0.20934262871742249,
                0.03932982683181763,
                -0.18577520549297333,
                -0.24649150669574738,
                0.14699687063694,
                -0.05190591514110565,
                0.2300172597169876
            ],
            [
                -0.16054663062095642,
                -0.13292920589447021,
                -0.23188544809818268,
                -0.0037593895103782415,
                -0.24725142121315002,
                -0.31994733214378357,
                -5.368455679999329e-11,
                -0.043677520006895065,
                -4.77493045103472e-12,
                0.10819114744663239,
                -0.09375651180744171,
                -0.12475499510765076,
                0.09614557027816772,
                0.17280247807502747,
                0.10565938800573349,
                0.07245262712240219
            ]
        ],
        "w2": [
            [
                -0.26641133427619934,
                0.06998050212860107,
                -0.20244933664798737,
                0.03632485866546631,
                -0.1259167641401291,
                -0.4071410596370697,
                -3.6212900733634257e-11,
                0.005334669258445501,
                -8.889129710087929e-11,
                -0.16115935146808624,
                0.09558558464050293,
                0.0010190487373620272,
                -0.24094748497009277,
                -0.1728145033121109,
                0.3101188838481903,
                -0.5080739855766296
            ],
            [
                -0.14026422798633575,
                0.1857680082321167,
                0.10126502811908722,
                -0.22061949968338013,
                -0.19472554326057434,
                0.0877085030078888,
                -1.28625068929189e-10,
                0.06785955280065536,
                -8.933327688698256e-11,
                -0.10682262480258942,
                -0.038658272475004196,
                0.1588287353515625,
                0.1836642622947693,
                0.3012778162956238,
                0.025099700316786766,
                0.19553440809249878
            ],
            [
                7.496909759652226e-09,
                -0.0451030507683754,
                -0.02200784534215927,
                -0.05815672501921654,
                -9.768876770976931e-05,
                -0.053427476435899734,
                3.861104144742278e-11,
                -0.05097123607993126,
                -1.082416656306151e-10,
                -0.013155288994312286,
                -2.3076285327050527e-10,
                4.331800482759718e-06,
                -0.010696266777813435,
                -0.056725937873125076,
                -4.129361436122636e-11,
                -0.0022781111765652895
            ],
            [
                1.0171097297728693e-09,
                -0.000630896829534322,
                1.868628585199872e-09,
                -0.00034903892083093524,
                3.9323672096358564e-10,
                -7.023247261539467e-11,
                -2.8972288977635596e-12,
                -0.007669665385037661,
                2.2806131982910927e-11,
                -0.0006842868751846254,
                4.1167885767023904e-10,
                -1.715868280793842e-10,
                1.0041827369633438e-09,
                -0.00016597757348790765,
                -4.473305406649253e-12,
                -3.4657710035190803e-10
            ],
            [
                2.68219543797521e-11,
                -0.0013856197474524379,
                -2.3423721295934286e-10,
                -0.010322250425815582,
                -1.184293996203678e-09,
                -0.0006219539209268987,
                1.3208384386231842e-10,
                -0.01553803589195013,
                -1.2380728386940376e-10,
                -5.3321905397751834e-06,
                -1.4195376818459948e-10,
                -1.158024370839783e-10,
                -0.001738478778861463,
                -0.0002998903510160744,
                1.433727303545851e-10,
                -1.4431954242777323e-10
            ],
            [
                -0.44234567880630493,
                0.12810330092906952,
                -0.3144855797290802,
                -0.1879299134016037,
                0.09348011016845703,
                -0.1320297122001648,
                9.220856078684392e-09,
                -0.09678510576486588,
                1.9912826942913853e-10,
                0.13793791830539703,
                0.08786101639270782,
                0.11223951727151871,
                0.1511998027563095,
                0.2119724303483963,
                -0.22125938534736633,
                0.0441959910094738
            ],
            [
                -0.5601177215576172,
                0.28019291162490845,
                0.2600427269935608,
                -0.43544232845306396,
                -0.03629661351442337,
                0.13998933136463165,
                -5.456790228008934e-11,
                0.20963406562805176,
                -1.0600261987625537e-12,
                -0.16461332142353058,
                0.16892725229263306,
                0.08419393748044968,
                0.029376180842518806,
                0.18075723946094513,
                -5.184125004276119e-11,
                0.3395649790763855
            ],
            [
                0.2474658340215683,
                0.0851348415017128,
                0.05250425264239311,
                -0.3992817997932434,
                -0.7863137125968933,
                -0.006759373936802149,
                5.6132397341368545e-11,
                -0.4454910159111023,
                -9.414689861042547e-11,
                -0.6859083771705627,
                0.1639065146446228,
                -0.6541513800621033,
                0.034304093569517136,
                0.3884980082511902,
                -1.0434267894154914e-09,
                -0.7945421934127808
            ],
            [
                -0.10222957283258438,
                0.13516412675380707,
                0.17493101954460144,
                0.09572049975395203,
                0.19288605451583862,
                -0.1971229910850525,
                4.6628974986751004e-11,
                -0.06600893288850784,
                7.935711116013877e-11,
                -0.13922293484210968,
                -0.2206602245569229,
                0.008908942341804504,
                -0.0837673470377922,
                0.20526272058486938,
                -0.1860349476337433,
                -0.06651196628808975
            ],
            [
                0.13981956243515015,
                -0.1642274409532547,
                -0.2610465884208679,
                -0.10128717124462128,
                0.13324281573295593,
                -0.2528790235519409,
                -6.234159716234089e-11,
                0.034476134926080704,
                6.1226516911983e-11,
                -0.16855975985527039,
                0.18385177850723267,
                0.06561662256717682,
                0.14363637566566467,
                -0.30156853795051575,
                -0.021575847640633583,
                -0.27219030261039734
            ],
            [
                -0.20767752826213837,
                0.09131049364805222,
                -0.03909815102815628,
                -0.35338228940963745,
                0.12726184725761414,
                -0.2374444603919983,
                1.7098386595471027e-10,
                0.16913515329360962,
                -1.494236540056093e-10,
                -0.0824449211359024,
                -0.071448914706707,
                0.10415788739919662,
                -0.05845893546938896,
                0.1756727546453476,
                -0.048265889286994934,
                0.06026117876172066
            ],
            [
                0.04111797735095024,
                -0.2586438059806824,
                -0.09459608048200607,
                0.1081964522600174,
                -0.062467996031045914,
                -0.30775541067123413,
                1.4384204938266976e-10,
                -0.058115698397159576,
                -6.439020844295484e-11,
                -0.26897338032722473,
                -0.07144016027450562,
                -0.14633271098136902,
                0.01582317240536213,
                -0.20036429166793823,
                -6.22020213114638e-11,
                -0.19702550768852234
            ],
            [
                0.09271314740180969,
                0.04598033428192139,
                0.07498092204332352,
                -0.060527391731739044,
                0.11817935109138489,
                -0.05833790451288223,
                1.0155493113117586e-10,
                0.16169753670692444,
                -8.032073270380913e-13,
                -0.21578159928321838,
                -0.03848062455654144,
                -0.29665714502334595,
                0.1260533183813095,
                -0.3191397488117218,
                -8.818345668260008e-05,
                -0.18387597799301147
            ],
            [
                -0.23490463197231293,
                -0.16294485330581665,
                -0.20921316742897034,
                0.10656603425741196,
                -0.2236650139093399,
                -0.0722658634185791,
                5.9775594196676e-11,
                -0.23072640597820282,
                1.5147232426682145e-12,
                0.062515489757061,
                -0.03996171057224274,
                -0.07847917079925537,
                -0.18131418526172638,
                -0.2659149169921875,
                6.05256643415597e-12,
                0.13697786629199982
            ],
            [
                0.14939343929290771,
                0.1590084284543991,
                -0.003805360058322549,
                0.006363178603351116,
                0.13193605840206146,
                0.15092596411705017,
                1.9755487523642756e-10,
                0.08874857425689697,
                2.090704172286184e-11,
                -0.0972013846039772,
                0.1646888554096222,
                -0.014307552017271519,
                0.012950011529028416,
                0.14585629105567932,
                -0.04455060884356499,
                -0.11898359656333923
            ],
            [
                0.030378857627511024,
                -0.03286541998386383,
                -0.02523418702185154,
                0.06524147838354111,
                0.09564358741044998,
                0.021868126466870308,
                7.562132170457758e-11,
                -0.2697616219520569,
                2.0105429821004606e-10,
                -0.035337287932634354,
                0.09069529175758362,
                0.06964441388845444,
                0.1412685513496399,
                0.02585521712899208,
                -0.028297172859311104,
                0.08192998170852661
            ]
        ],
        "b": [
            0.3636901378631592,
            -0.2897575795650482,
            -0.09646357595920563,
            -0.0029679075814783573,
            -0.006493938621133566,
            -0.04089811071753502,
            -0.24378183484077454,
            0.23749090731143951,
            -0.22270992398262024,
            0.17479120194911957,
            -0.22483360767364502,
            -0.04536904767155647,
            -0.2838803231716156,
            -0.0004830158140975982,
            -0.13235706090927124,
            0.21778763830661774
        ],
        "activation": true
    },
    {
        "layer": "sage",
        "in_channels": 16,
        "out_channels": 16,
        "w1": [
            [
                -0.5516847372055054,
                -0.0745013952255249,
                -1.4487683301922516e-06,
                2.5935729258685924e-11,
                1.6901086086207329e-10,
                -0.09559384733438492,
                0.21414358913898468,
                -1.380178689956665,
                -0.11306080967187881,
                0.043156202882528305,
                0.22346188127994537,
                -0.10503625124692917,
                -0.22344301640987396,
                0.009527072310447693,
                0.1791895180940628,
                -0.2098567932844162
            ],
            [
                -0.9080185890197754,
                0.005167713854461908,
                0.0007394570857286453,
                1.2121373349494036e-10,
                -4.952572379979259e-11,
                0.11183253675699234,
                0.3632128834724426,
                -0.862689197063446,
                -0.1266522854566574,
                0.05851603299379349,
                0.028448473662137985,
                0.020810473710298538,
                0.18925778567790985,
                0.10797146707773209,
                -0.08620436489582062,
                -0.08140000700950623
            ],
            [
                -0.36487895250320435,
                0.18877719342708588,
                0.0008033019839785993,
                -8.945468671361922e-11,
                -2.2602947291616715e-10,
                -0.11562995612621307,
                0.1485748142004013,
                -0.4830620288848877,
                0.18537108600139618,
                -0.07047566026449203,
                -0.06437515467405319,
                0.06304950267076492,
                0.04496152326464653,
                0.11563792824745178,
                -0.10056789219379425,
                -0.04642672464251518
            ],
            [
                -0.3342054784297943,
                0.054881829768419266,
                -3.656814897112781e-06,
                -3.0522576133229506e-10,
                -9.599377959190747e-10,
                0.2712283134460449,
                0.2761361002922058,
                -0.44643017649650574,
                -0.0033323774114251137,
                0.019924795255064964,
                0.284645140171051,
                -0.01745280623435974,
                0.11160580068826675,
                -0.22446459531784058,
                0.21669484674930573,
                -0.24049729108810425
            ],
            [
                -0.10159675031900406,
                0.18477824330329895,
                2.291631517437054e-06,
                -3.764982769993708e-11,
                1.8141370350388542e-10,
                0.20878121256828308,
                0.17816948890686035,
                -0.013313326053321362,
                0.16533391177654266,
                -0.23679140210151672,
                0.23316390812397003,
                -0.040934253484010696,
                -0.25298210978507996,
                0.10276132822036743,
                -0.22444839775562286,
                -0.15380465984344482
            ],
            [
                0.2018888294696808,
                -0.24008958041667938,
                -5.099126610730309e-06,
                -6.905221533459738e-11,
                -3.351087463077107e-11,
                -0.3100888431072235,
                -0.2710435688495636,
                1.0391229391098022,
                -0.05861527472734451,
                -0.2315797358751297,
                -0.1261606216430664,
                -0.08264989405870438,
                -0.028551971539855003,
                -0.1467745304107666,
                -0.07521490752696991,
                0.14745032787322998
            ],
            [
                -0.30787327885627747,
                0.0048718536272645,
                1.6283614741041674e-06,
                1.6524083490399022e-10,
                1.0247443171795823e-10,
                0.005155002698302269,
                0.36138954758644104,
                -0.5728036761283875,
                0.1428234726190567,
                0.2356315702199936,
                0.12251969426870346,
                -0.04471312463283539,
                -0.10806182771921158,
                0.20915135741233826,
                0.2483016699552536,
                0.29789575934410095
            ],
            [
                0.6041266918182373,
                -0.025184176862239838,
                -1.995776301555452e-06,
                4.9337652019421085e-11,
                4.7070063124987627e-11,
                -0.28679215908050537,
                -0.2112596482038498,
                0.9871183633804321,
                0.09016978740692139,
                -0.03672493249177933,
                -0.31399551033973694,
                -0.11647314578294754,
                -0.12884001433849335,
                -0.15663713216781616,
                -0.22012802958488464,
                -0.045499883592128754
            ],
            [
                0.7797086834907532,
                -0.022857511416077614,
                1.3237116718300967e-06,
                3.6001110946537462e-12,
                1.434002777633836e-10,
                0.051210664212703705,
                -0.03550166264176369,
                0.7648689150810242,
                0.07535717636346817,
                0.06746931374073029,
                -0.19832062721252441,
                0.19147419929504395,
                -0.17194141447544098,
                -0.19434784352779388,
                0.12341557443141937,
                0.24333925545215607
            ],
            [
                -0.3853982388973236,
                0.049171607941389084,
                0.013812657445669174,
                -8.171036069981596e-11,
                9.156955749212159e-11,
                -0.19193965196609497,
                0.5164587497711182,
                -0.30288758873939514,
                0.010186011902987957,
                -0.15349051356315613,
                0.031222136691212654,
                0.11950310319662094,
                0.018379168584942818,
                0.03450380265712738,
                -0.07953852415084839,
                -0.1941528618335724
            ],
            [
                0.1726965755224228,
                -0.08191598951816559,
                -0.03578200936317444,
                -3.148564187149816e-10,
                5.789825216484523e-11,
                -0.11093207448720932,
                -0.25476768612861633,
                0.554577648639679,
                0.008878651075065136,
                -0.1825515329837799,
                -0.2819575369358063,
                0.19902516901493073,
                0.0677167996764183,
                -0.10525219142436981,
                -0.08188582956790924,
                0.23047085106372833
            ],
            [
                -0.4980461895465851,
                -0.07998441904783249,
                2.8448394004954025e-06,
                -7.819222352933863e-11,
                -3.661917644115498e-11,
                -0.07518579810857773,
                0.042499735951423645,
                -0.7422351837158203,
                -0.08563729375600815,
                0.13295120000839233,
                0.2986429035663605,
                -0.0381842702627182,
                -0.029289307072758675,
                0.05483762174844742,
                0.27174684405326843,
                -0.20295841991901398
            ],
            [
                -0.5914347767829895,
                -0.014637027867138386,
                0.02683897316455841,
                -3.697079795084157e-11,
                8.797232040058667e-12,
                -0.06841526180505753,
                0.38172709941864014,
                -0.9125669002532959,
                -0.15153808891773224,
                0.1968560814857483,
                0.020353831350803375,
                -0.09159702062606812,
                0.27287954092025757,
                0.18478266894817352,
                0.14861448109149933,
                0.0919453352689743
            ],
            [
                -0.18460136651992798,
                0.12302586436271667,
                0.012614172883331776,
                -2.064158566295049e-10,
                -4.326283220557059e-10,
                0.21671821177005768,
                0.2868291437625885,
                -0.5477912425994873,
                0.16029347479343414,
                -0.06789271533489227,
                -0.01599924825131893,
                -0.007999987341463566,
                -0.0005543142324313521,
                -0.16963115334510803,
                0.12408297508955002,
                -0.2130066305398941
            ],
            [
                -0.2850579619407654,
                0.1445247232913971,
                2.748565748333931e-07,
                2.5886567195376742e-11,
                1.308097796748342e-10,
                0.26050660014152527,
                0.3993857800960541,
                -0.763220489025116,
                -0.13952670991420746,
                -0.07061762362718582,
                0.2671303451061249,
                0.10049987584352493,
                -0.07129507511854172,
                0.12942393124103546,
                -0.023349788039922714,
                0.16858656704425812
            ],
            [
                0.5194719433784485,
                -0.1276605725288391,
                -0.02463890053331852,
                -6.941003327654016e-12,
                6.53805481976022e-11,
                0.035149745643138885,
                -0.36756300926208496,
                1.194016933441162,
                -0.11461164057254791,
                0.08197679370641708,
                0.01916631869971752,
                0.03921524062752724,
                0.1372516006231308,
                -0.013050094246864319,
                0.1389380693435669,
                0.15468958020210266
            ]
        ],
        "w2": [
            [
                -0.31521639227867126,
                0.028390437364578247,
                0.0013874777359887958,
                1.5522673424417377e-10,
                3.203163012610588e-10,
                0.17212851345539093,
                0.43167513608932495,
                -1.2575114965438843,
                0.13846027851104736,
                0.16410422325134277,
                -0.028153633698821068,
                0.11894800513982773,
                -0.08103522658348083,
                0.13766945898532867,
                0.11544099450111389,
                0.11041809618473053
            ],
            [
                -0.39710572361946106,
                0.07745511829853058,
                0.02538454718887806,
                -8.502522991227224e-11,
                5.015312123934912e-11,
                0.2310911864042282,
                0.4497528076171875,
                -0.4971069097518921,
                0.02150016464293003,
                0.26326125860214233,
                0.04556142911314964,
                -0.12096350640058517,
                0.28036943078041077,
                0.019289735704660416,
                -0.11200310289859772,
                0.001031731255352497
            ],
            [
                -0.36455145478248596,
                0.12112552672624588,
                0.02637123316526413,
                -1.0409496181695843e-11,
                -2.3043836283598296e-10,
                0.11425299942493439,
                0.3207964599132538,
                -0.5608986616134644,
                -0.07810506969690323,
                -0.14367197453975677,
                0.22676639258861542,
                0.13627034425735474,
                -0.028317661955952644,
                -0.13065724074840546,
                0.11437501758337021,
                -0.06711263209581375
            ],
            [
                -0.19419224560260773,
                0.1043427437543869,
                0.0008708343375474215,
                3.553177196913282e-11,
                3.9198122976813465e-05,
                -0.0843159556388855,
                0.23206906020641327,
                -0.5721899271011353,
                0.054578471928834915,
                -0.14972834289073944,
                0.017481500282883644,
                -0.0018312878673896194,
                -0.051430873572826385,
                0.036984384059906006,
                0.2598066031932831,
                0.2139090597629547
            ],
            [
                0.15663008391857147,
                0.052672576159238815,
                8.558971603633836e-05,
                6.164711102707443e-11,
                -2.1509487246884618e-10,
                0.20908498764038086,
                -0.004675061441957951,
                -0.014270943589508533,
                -0.03459952771663666,
                0.22180131077766418,
                -0.1266009658575058,
                -0.06834293156862259,
                0.15205572545528412,
                0.12528066337108612,
                -0.008562332019209862,
                -0.022870894521474838
            ],
            [
                0.19353726506233215,
                0.02652713656425476,
                -0.0034602463711053133,
                -1.258016885108404e-10,
                9.496620850812931e-11,
                0.09140754491090775,
                -0.33678868412971497,
                0.6557661294937134,
                0.141958087682724,
                -0.23451659083366394,
                -0.27611541748046875,
                -0.18400734663009644,
                -0.09567084163427353,
                0.10261765122413635,
                -0.13525818288326263,
                -0.0634012296795845
            ],
            [
                -0.1331440508365631,
                0.05326439440250397,
                0.005786373279988766,
                -1.802957436125574e-11,
                2.581989899663739e-10,
                -0.12074854224920273,
                0.05533455312252045,
                -0.40073341131210327,
                0.10493794083595276,
                -0.18940430879592896,
                0.03737041726708412,
                0.09075174480676651,
                -0.06440774351358414,
                0.21746264398097992,
                0.2468804568052292,
                -0.1663745790719986
            ],
            [
                0.14706507325172424,
                -0.2661214768886566,
                8.278920176962856e-06,
                -1.11301731720026e-11,
                -8.616432567443155e-11,
                -0.006394579075276852,
                -0.2346048653125763,
                0.9429875016212463,
                -0.07996615767478943,
                0.14268609881401062,
                0.04077202081680298,
                -0.027249757200479507,
                -0.09484298527240753,
                -0.15616507828235626,
                -0.2383067011833191,
                -0.13240192830562592
            ],
            [
                0.17915111780166626,
                -0.13491640985012054,
                -5.988282509861165e-07,
                -3.134233844681589e-11,
                5.158021787465827e-10,
                -0.2309948056936264,
                -0.10884630680084229,
                0.551883339881897,
                -0.14572158455848694,
                0.21455734968185425,
                -0.14144766330718994,
                0.023367321118712425,
                -0.2027685046195984,
                -0.15845954418182373,
                0.18030935525894165,
                0.07833749800920486
            ],
            [
                -0.45256879925727844,
                0.17164574563503265,
                0.0590934082865715,
                -1.1964819413012862e-10,
                9.843119375130271e-12,
                0.08750081807374954,
                0.14110228419303894,
                -0.31361153721809387,
                0.03213992714881897,
                0.06746486574411392,
                0.18570595979690552,
                -0.172978475689888,
                -0.09978241473436356,
                -0.08909031003713608,
                -0.1204889714717865,
                0.20629091560840607
            ],
            [
                0.47845375537872314,
                -0.067454032599926,
                -0.08141520619392395,
                3.3510294539240704e-10,
                3.763050704375104e-10,
                -0.25676000118255615,
                -0.2982674837112427,
                0.23830190300941467,
                0.17032811045646667,
                -0.1717759072780609,
                0.07224203646183014,
                -0.18390369415283203,
                0.18380692601203918,
                0.1511131227016449,
                -0.26253852248191833,
                -0.09883563220500946
            ],
            [
                -0.5434674024581909,
                -0.027716204524040222,
                0.005560750141739845,
                -1.614809952421581e-10,
                3.8339924984809315e-11,
                -0.1539158821105957,
                0.25661003589630127,
                -0.45134180784225464,
                0.18627206981182098,
                -0.057339735329151154,
                -0.099916972219944,
                0.12105289101600647,
                0.262891948223114,
                -0.2697277069091797,
                -0.058643024414777756,
                0.06394949555397034
            ],
            [
                -0.28267866373062134,
                0.338206022977829,
                0.06731421500444412,
                3.9408915020189283e-10,
                2.1202838096368026e-10,
                0.21051014959812164,
                0.06742575019598007,
                -0.8179086446762085,
                0.26190894842147827,
                -0.11444257944822311,
                0.3258790671825409,
                0.08006581664085388,
                0.22597293555736542,
                0.014632809907197952,
                0.27682557702064514,
                -0.08041626960039139
            ],
            [
                -0.3318953812122345,
                0.19275420904159546,
                0.051955800503492355,
                3.0080971047397043e-10,
                -3.960217487275486e-09,
                0.2168503850698471,
                0.082588791847229,
                -0.16096453368663788,
                0.16793982684612274,
                -0.10129796713590622,
                0.10072112828493118,
                0.10755480825901031,
                -0.089712955057621,
                -0.16415415704250336,
                -0.15232239663600922,
                -0.13099633157253265
            ],
            [
                -0.2810479402542114,
                -0.04847346618771553,
                4.062202151544625e-06,
                2.603635189390996e-11,
                1.1643423114549023e-08,
                0.13127604126930237,
                0.25288888812065125,
                -0.510114848613739,
                0.1940341591835022,
                -0.187449112534523,
                -0.011708883568644524,
                -0.15525683760643005,
                0.21494586765766144,
                0.16804875433444977,
                -0.01929769478738308,
                0.03204132989048958
            ],
            [
                0.2654528319835663,
                -0.276544988155365,
                -0.06938358396291733,
                9.759944935572307e-11,
                -7.082064101826546e-12,
                -0.06307601928710938,
                -0.2473752349615097,
                0.8205655813217163,
                -0.079961858689785,
                -0.03020058386027813,
                -0.014868897385895252,
                -0.044973768293857574,
                0.007256488781422377,
                -0.129220649600029,
                -0.131586492061615,
                -0.11188008636236191
            ]
        ],
        "b": [
            -0.07497773319482803,
            0.09942776709794998,
            -0.03153437748551369,
            -0.2017967849969864,
            -0.07405941188335419,
            0.20941756665706635,
            -0.11299477517604828,
            0.11219898611307144,
            -0.05698341131210327,
            0.050214968621730804,
            0.12303196638822556,
            0.18562361598014832,
            -0.11403129994869232,
            -0.0657416582107544,
            -0.09300310909748077,
            0.09296533465385437
        ],
        "activation": false
    },
    {
        "layer": "add_pool"
    },
    {
        "layer": "dense",
        "in_channels": 16,
        "out_channels": 2,
        "w": [
            [
                -0.1289229542016983,
                -0.16723355650901794,
                -0.11683715879917145,
                -0.11576981842517853,
                -0.024193519726395607,
                0.16406066715717316,
                -0.17990480363368988,
                0.3896968960762024,
                0.13633835315704346,
                -0.16291669011116028,
                0.18305644392967224,
                -0.23739677667617798,
                0.032311417162418365,
                -0.10303962230682373,
                -0.12930095195770264,
                0.1262376457452774
            ],
            [
                0.10917853564023972,
                0.04764565825462341,
                0.1383003294467926,
                0.27621185779571533,
                -0.005230107344686985,
                -0.0020838016644120216,
                -0.05956614017486572,
                -0.05484599620103836,
                -0.1439449042081833,
                0.09415365010499954,
                -0.09458204358816147,
                -0.04980536922812462,
                0.3011426031589508,
                0.1743064522743225,
                0.21400333940982819,
                -0.0903039425611496
            ]
        ],
        "b": [
            0.2509976923465729,
            -0.07537555694580078
        ],
        "activation": false
    }
]