[
    {
        "L": 5
    },
    {
        "layer": "sage",
        "in_channels": 3,
        "out_channels": 16,
        "w1": [
            [
                0.05013398826122284,
                0.18562915921211243,
                -0.41926226019859314
            ],
            [
                -0.4299713969230652,
                1.021035075187683,
                -0.5741047263145447
            ],
            [
                -0.3773593306541443,
                -0.37365174293518066,
                -0.1643931120634079
            ],
            [
                -0.4062105715274811,
                -0.5139568448066711,
                0.4763292670249939
            ],
            [
                -0.08568605780601501,
                -0.5411413908004761,
                -0.49295511841773987
            ],
            [
                -1.1896368265151978,
                -0.9305059313774109,
                0.01703869178891182
            ],
            [
                -0.22141313552856445,
                -0.08248179405927658,
                0.4895247220993042
            ],
            [
                0.17125532031059265,
                0.2653929591178894,
                -0.34021520614624023
            ],
            [
                -0.0023436842020601034,
                0.007959776557981968,
                0.05543121322989464
            ],
            [
                -0.013181125745177269,
                -0.06399883329868317,
                -0.4800519347190857
            ],
            [
                -0.670462965965271,
                -0.2473001331090927,
                -0.02947375178337097
            ],
            [
                0.12423565983772278,
                -0.6828435659408569,
                -0.7350047826766968
            ],
            [
                -0.3788851797580719,
                -1.2361961603164673,
                0.1673937737941742
            ],
            [
                -0.7034088373184204,
                0.37932324409484863,
                -0.28458172082901
            ],
            [
                0.3305661678314209,
                -0.5279834866523743,
                -0.7583378553390503
            ],
            [
                -0.03724053129553795,
                0.5697486400604248,
                0.6062950491905212
            ]
        ],
        "w2": [
            [
                -0.2555830478668213,
                0.46365559101104736,
                0.02552875503897667
            ],
            [
                -0.23706167936325073,
                -0.884946346282959,
                0.025546753779053688
            ],
            [
                -0.2964595556259155,
                0.04234493151307106,
                -0.26379984617233276
            ],
            [
                0.313820481300354,
                0.23953549563884735,
                0.24818970263004303
            ],
            [
                -0.08990233391523361,
                0.4550720453262329,
                -0.6844548583030701
            ],
            [
                -0.9609842896461487,
                -0.513840913772583,
                0.31892138719558716
            ],
            [
                -1.1491103172302246,
                -0.501785397529602,
                0.2736085057258606
            ],
            [
                0.3252115547657013,
                0.21580395102500916,
                0.08627215772867203
            ],
            [
                -0.5784431099891663,
                0.45475032925605774,
                -0.14534622430801392
            ],
            [
                0.03522474691271782,
                -0.1207377016544342,
                0.4527951776981354
            ],
            [
                0.293487012386322,
                -0.05232147499918938,
                -0.32478004693984985
            ],
            [
                0.29575419425964355,
                0.3089047074317932,
                0.06658586114645004
            ],
            [
                -1.1871873140335083,
                -0.4173961579799652,
                0.48920929431915283
            ],
            [
                -0.6728668212890625,
                0.38971295952796936,
                -0.13562794029712677
            ],
            [
                0.3781188130378723,
                0.029005644842982292,
                0.04255129024386406
            ],
            [
                0.2967844605445862,
                -0.2928530275821686,
                -0.39773184061050415
            ]
        ],
        "b": [
            -0.6293740272521973,
            0.37647688388824463,
            -0.05709216743707657,
            -0.3057636022567749,
            0.07177172601222992,
            0.18963539600372314,
            -0.14293688535690308,
            -0.45722320675849915,
            -0.36600276827812195,
            -0.33473673462867737,
            0.06870788335800171,
            -0.7127869725227356,
            -0.5902155041694641,
            0.08462553471326828,
            -0.13233739137649536,
            -0.3270949721336365
        ],
        "activation": true
    },
    {
        "layer": "sage",
        "in_channels": 16,
        "out_channels": 16,
        "w1": [
            [
                -0.009997290559113026,
                -5.827117713862326e-29,
                4.95547965329024e-06,
                -0.19583569467067719,
                -0.24165146052837372,
                0.014365000650286674,
                -0.0006660477956756949,
                -0.05238421633839607,
                -4.1082029156314093e-07,
                -0.1816885769367218,
                -0.07455651462078094,
                0.09003116190433502,
                -3.692130180497732e-29,
                0.054298870265483856,
                0.04844609647989273,
                -0.027305448427796364
            ],
            [
                -0.19771307706832886,
                -0.1815454214811325,
                2.238359636530518e-10,
                -0.14172054827213287,
                -0.3022078573703766,
                -0.16411323845386505,
                -0.03756653890013695,
                0.1411965787410736,
                -0.23489294946193695,
                0.07472340017557144,
                -0.24077515304088593,
                -0.32392990589141846,
                -0.16070064902305603,
                -0.09310752898454666,
                -0.12895970046520233,
                0.11071546375751495
            ],
            [
                -0.04206926375627518,
                -1.927106567212635e-29,
                4.848394421751867e-29,
                -0.05119067430496216,
                0.07000219076871872,
                -3.4640919500653304e-30,
                2.023851733886666e-27,
                -0.11921146512031555,
                -0.007754720281809568,
                2.663859632228927e-29,
                5.757514317183273e-21,
                -0.020299019291996956,
                4.461960791382321e-29,
                -0.04170462116599083,
                -0.03527664765715599,
                -2.9247617506764203e-29
            ],
            [
                -0.07249577343463898,
                -0.7087037563323975,
                -1.3136902965761443e-28,
                0.3127191960811615,
                -0.2718889117240906,
                1.728017471256804e-29,
                -0.10222071409225464,
                -0.030378349125385284,
                -0.0067224567756056786,
                -3.5879737826193936e-29,
                0.29631203413009644,
                0.3041438162326813,
                -2.409963986733804e-29,
                -0.17880107462406158,
                0.573339581489563,
                0.60555499792099
            ],
            [
                -0.7729198336601257,
                0.6925140023231506,
                6.166370875419245e-29,
                0.017898881807923317,
                -0.5163141489028931,
                0.28376537561416626,
                0.4456055462360382,
                -0.3165037930011749,
                -0.3444923460483551,
                0.1953551322221756,
                -0.3458637595176697,
                -0.18002715706825256,
                0.5092707872390747,
                0.7623286843299866,
                -0.3246416449546814,
                -0.9226177334785461
            ],
            [
                -0.333615779876709,
                -0.2837273180484772,
                6.924574587044258e-29,
                -0.14478640258312225,
                -0.455100417137146,
                0.2973942160606384,
                0.3437494933605194,
                -0.24944323301315308,
                -0.4455973505973816,
                0.02317597158253193,
                -0.05061844363808632,
                -0.1369871348142624,
                0.24718979001045227,
                -0.5668647289276123,
                -0.28258708119392395,
                0.016109026968479156
            ],
            [
                0.15166382491588593,
                4.470968096102028e-26,
                -0.02443026937544346,
                -0.04301459342241287,
                -0.25191035866737366,
                -0.1001221239566803,
                -0.0466914176940918,
                -0.3396480679512024,
                -0.07209892570972443,
                -0.2265748530626297,
                0.06498780101537704,
                0.03105234168469906,
                -0.1551554799079895,
                0.04560960456728935,
                -0.2825418710708618,
                -0.20002643764019012
            ],
            [
                0.30470553040504456,
                0.770756185054779,
                -1.708257129100837e-29,
                0.42550480365753174,
                0.28241199254989624,
                -0.43384239077568054,
                0.2546359598636627,
                -0.1414984166622162,
                0.3550574779510498,
                -0.35643476247787476,
                0.05422693490982056,
                0.4158291220664978,
                -0.3595849275588989,
                0.3460961878299713,
                0.18416868150234222,
                0.1433955729007721
            ],
            [
                0.12984570860862732,
                0.5111833214759827,
                -0.26859137415885925,
                -0.1121230348944664,
                0.20179112255573273,
                -0.1810954511165619,
                0.15881182253360748,
                0.007116869557648897,
                -0.32987719774246216,
                0.10295814275741577,
                0.07160879671573639,
                0.07364515215158463,
                0.8272109031677246,
                -0.32282280921936035,
                -0.14021393656730652,
                -0.49202823638916016
            ],
            [
                -0.28191813826560974,
                -2.5548772100592032e-05,
                0.015379720367491245,
                -0.1081923246383667,
                0.15040703117847443,
                -0.06857024133205414,
                -0.23035430908203125,
                0.11949174851179123,
                -0.2216060608625412,
                -0.22066834568977356,
                -0.15225288271903992,
                0.1637248992919922,
                -0.046566881239414215,
                -0.027439476922154427,
                0.17718414962291718,
                -0.5219171047210693
            ],
            [
                0.0041154781356453896,
                9.190191629079007e-29,
                2.78427689736897e-29,
                -4.047874418130021e-30,
                -0.005940163042396307,
                -2.7389630759696303e-29,
                -0.002576621947810054,
                -0.017248451709747314,
                1.0426709371115758e-29,
                6.321388976642973e-29,
                -4.707216534590991e-30,
                -1.3876779648406288e-29,
                -3.0425422973519755e-29,
                -0.07557198405265808,
                -0.002491994062438607,
                1.4643221525368417e-29
            ],
            [
                1.4479431716027666e-29,
                -5.545507033687809e-29,
                5.148862965347473e-29,
                -0.04693584516644478,
                0.056225571781396866,
                3.819066793731164e-30,
                -3.0400521301191936e-29,
                0.14844435453414917,
                -1.1761189991163597e-29,
                -3.799968715688496e-29,
                -0.05545378103852272,
                -0.03143731877207756,
                -1.0672091804403582e-28,
                7.064711870182057e-29,
                -0.0281484667211771,
                -0.001597309485077858
            ],
            [
                -0.49795863032341003,
                -0.8884178400039673,
                5.903593282449144e-21,
                0.41054004430770874,
                -0.291947603225708,
                -0.24869859218597412,
                -0.36729133129119873,
                -0.23055587708950043,
                -0.36542215943336487,
                0.03841452673077583,
                0.1893845498561859,
                -0.09117752313613892,
                -0.7261407375335693,
                -0.5189735889434814,
                -0.036403365433216095,
                -0.6655981540679932
            ],
            [
                -0.17579106986522675,
                0.4989110827445984,
                -0.03967663645744324,
                -0.048825398087501526,
                0.044068824499845505,
                0.04512377083301544,
                -0.10217076539993286,
                0.03393715247511864,
                -0.21164268255233765,
                -0.11966423690319061,
                0.2113245576620102,
                0.01002141647040844,
                -0.00857079029083252,
                0.07054238766431808,
                -0.10008535534143448,
                0.0832539051771164
            ],
            [
                -0.1509488970041275,
                0.6920331120491028,
                -0.02958073280751705,
                -0.06399262696504593,
                -0.015892663970589638,
                0.2754460871219635,
                0.09337767958641052,
                -0.3681578040122986,
                0.15708698332309723,
                0.24661150574684143,
                -0.08948331326246262,
                -0.1501772701740265,
                0.6295923590660095,
                0.38995975255966187,
                -0.040470585227012634,
                0.1812582165002823
            ],
            [
                0.3695405423641205,
                0.9744004607200623,
                -0.07343128323554993,
                -0.08494631946086884,
                -0.15214340388774872,
                -0.05235626921057701,
                -0.24341779947280884,
                0.10562916845083237,
                0.1641514152288437,
                -0.012160561047494411,
                -0.293712317943573,
                -0.050473902374506,
                -0.1357317864894867,
                0.4225543141365051,
                -0.18821929395198822,
                0.006370003800839186
            ]
        ],
        "w2": [
            [
                -0.07898296415805817,
                9.705782635417468e-30,
                8.911692004654981e-26,
                -0.27203667163848877,
                -0.04559309035539627,
                -0.17465777695178986,
                -0.09113439172506332,
                -0.132425457239151,
                9.417931039443475e-29,
                0.11464378982782364,
                0.11399450153112411,
                -0.2872081696987152,
                3.886684307730093e-10,
                0.02944369800388813,
                0.0656081885099411,
                -0.17538385093212128
            ],
            [
                -0.03605818748474121,
                0.08485157787799835,
                0.01892608217895031,
                -0.12840819358825684,
                -0.11454948782920837,
                0.16352809965610504,
                -0.11848988384008408,
                0.03909817710518837,
                -0.13764744997024536,
                0.18152564764022827,
                -0.3218924105167389,
                -0.19077721238136292,
                0.29531872272491455,
                -0.09630520641803741,
                0.14561918377876282,
                0.05832941457629204
            ],
            [
                -0.01265868078917265,
                -8.756991002981771e-29,
                7.708495481957916e-29,
                -0.1748218834400177,
                -0.06315305083990097,
                -5.087481170607421e-29,
                -7.130442655477778e-30,
                -0.017056860029697418,
                1.2771138054443197e-27,
                0.004304467234760523,
                -0.04484446719288826,
                -0.016556251794099808,
                1.6909407619516423e-29,
                -9.281850361730903e-05,
                -0.0441768653690815,
                -0.029045362025499344
            ],
            [
                -0.24017879366874695,
                -0.4258290231227875,
                -3.0654419053172936e-29,
                -0.7375804781913757,
                -0.25956499576568604,
                2.528696063172508e-29,
                -1.372007545796805e-06,
                -0.12582416832447052,
                0.011400807648897171,
                -0.7590094804763794,
                -0.6462270021438599,
                -0.2633177936077118,
                7.724777414078387e-29,
                -0.29114142060279846,
                0.020188162103295326,
                -1.0797556638717651
            ],
            [
                -0.07309707999229431,
                -0.821984052658081,
                -9.820364934679125e-30,
                -0.2830289900302887,
                0.20689590275287628,
                0.4630715548992157,
                0.475077748298645,
                -0.19025836884975433,
                -0.3022269606590271,
                0.16800557076931,
                0.140243798494339,
                -0.5647351145744324,
                0.4962758421897888,
                -0.22607089579105377,
                -0.2668602466583252,
                -0.10517603904008865
            ],
            [
                -0.27982211112976074,
                -0.520089864730835,
                -8.866821371032207e-29,
                -0.022117750719189644,
                -0.45424872636795044,
                0.3069932162761688,
                0.23051054775714874,
                -0.40787163376808167,
                -0.2235555797815323,
                0.08717470616102219,
                0.125631183385849,
                -0.3424190878868103,
                0.2031732201576233,
                -0.3702905476093292,
                -0.37681740522384644,
                -0.1819974184036255
            ],
            [
                -0.07928400486707687,
                1.2839314433730549e-26,
                -0.19193163514137268,
                0.13766975700855255,
                -0.10537143051624298,
                -0.07995805889368057,
                -0.12656773626804352,
                -0.21875815093517303,
                -0.22187162935733795,
                -0.31834155321121216,
                0.03659914806485176,
                -0.1505269557237625,
                -0.19588735699653625,
                -0.18363022804260254,
                0.15184608101844788,
                -0.2765991985797882
            ],
            [
                -0.4169093668460846,
                0.06421957910060883,
                3.8489047900160525e-29,
                -0.11955461651086807,
                -0.8134756088256836,
                -0.29943132400512695,
                -0.4648689925670624,
                0.030927663668990135,
                -0.5317660570144653,
                0.2549634277820587,
                -0.3839150667190552,
                0.029239600524306297,
                -0.676376223564148,
                -1.2158725261688232,
                -0.32698503136634827,
                -0.7488224506378174
            ],
            [
                0.022183474153280258,
                -0.7843256592750549,
                -0.006370202172547579,
                0.2153344601392746,
                0.052786849439144135,
                -0.2718004882335663,
                -0.18749652802944183,
                0.05963660404086113,
                -0.511947512626648,
                -0.2259085774421692,
                0.108749158680439,
                -0.0020133189391344786,
                -0.07387364655733109,
                -0.3076194226741791,
                -0.32355767488479614,
                0.0256863571703434
            ],
            [
                -0.040737953037023544,
                -0.6411129832267761,
                0.09470324218273163,
                -0.001372631872072816,
                -0.10415606200695038,
                -0.04506264626979828,
                0.01735575683414936,
                -0.17533926665782928,
                -0.49754640460014343,
                -0.22434695065021515,
                0.1225937008857727,
                -0.15673597157001495,
                -0.03890455514192581,
                -0.041507698595523834,
                0.11950577050447464,
                0.1288529336452484
            ],
            [
                -0.045654065907001495,
                1.0611940197415508e-28,
                -4.437521342241155e-29,
                -0.009912417270243168,
                2.975074864914214e-29,
                -4.842059315941048e-29,
                0.020832305774092674,
                -0.042420338839292526,
                -1.354402288929303e-28,
                -0.011228793300688267,
                2.1912534262265898e-29,
                -4.1740360702557524e-29,
                -3.712379528303641e-29,
                0.02420603297650814,
                -0.006296496372669935,
                3.4365090221430595e-29
            ],
            [
                0.13256503641605377,
                -6.240601331227344e-30,
                0.0028647060971707106,
                -0.2512836456298828,
                -0.05084951967000961,
                -5.482142734811253e-29,
                7.831562082810995e-26,
                -0.300857812166214,
                5.354295893984183e-31,
                1.749309002950197e-30,
                -0.016282178461551666,
                0.06701809167861938,
                -6.093031463136979e-30,
                -0.15069817006587982,
                -0.03681209683418274,
                -2.975513991987862e-30
            ],
            [
                -0.039127450436353683,
                0.1836707890033722,
                -0.003105837618932128,
                0.258802592754364,
                -0.33126258850097656,
                -0.4736550450325012,
                -0.1902998983860016,
                0.008962856605648994,
                -0.12937447428703308,
                0.15675783157348633,
                0.15050722658634186,
                -0.19943805038928986,
                -0.3576705753803253,
                0.1628715991973877,
                -0.1699199080467224,
                -0.42619097232818604
            ],
            [
                -0.04691478982567787,
                -0.21675917506217957,
                0.16182921826839447,
                0.07184609770774841,
                -0.004220187664031982,
                -0.21826578676700592,
                0.18731209635734558,
                0.11577725410461426,
                -0.4668360650539398,
                -0.247343510389328,
                -0.14516113698482513,
                -0.03451200947165489,
                0.04863526672124863,
                -0.05779647082090378,
                0.09682904928922653,
                -0.33280646800994873
            ],
            [
                -0.3387019634246826,
                -0.27316319942474365,
                -0.24483038485050201,
                0.1881021112203598,
                -0.09476733952760696,
                0.0795411542057991,
                0.25138771533966064,
                0.09454844892024994,
                -0.43794479966163635,
                -0.17573270201683044,
                -0.10467087477445602,
                0.11771051585674286,
                -0.18390235304832458,
                -0.18197201192378998,
                0.01005939394235611,
                -0.41260430216789246
            ],
            [
                -0.19040924310684204,
                -0.05943804979324341,
                -0.004035402089357376,
                -0.24764038622379303,
                -0.13532303273677826,
                -0.07843928784132004,
                -0.3346237540245056,
                0.11257373541593552,
                -0.24955445528030396,
                -0.06081589683890343,
                0.01225082017481327,
                0.01476337481290102,
                -0.1422560214996338,
                -0.0831470787525177,
                0.08678971976041794,
                -0.21852751076221466
            ]
        ],
        "b": [
            -0.17925821244716644,
            -0.07012304663658142,
            -0.01972024329006672,
            0.24123486876487732,
            0.14732162654399872,
            -0.3724147081375122,
            -0.26308542490005493,
            0.41091954708099365,
            0.15068213641643524,
            -0.12792299687862396,
            -0.024792244657874107,
            -0.1129835844039917,
            -0.3079916834831238,
            -0.3511762022972107,
            0.12925134599208832,
            -0.13778901100158691
        ],
        "activation": true
    },
    {
        "layer": "sage",
        "in_channels": 16,
        "out_channels": 16,
        "w1": [
            [
                0.18617631494998932,
                -0.2115035206079483,
                -0.00252126925624907,
                0.19280105829238892,
                -0.6371634006500244,
                -0.22495779395103455,
                0.2898726463317871,
                0.08296389877796173,
                -0.047470495104789734,
                0.2820182144641876,
                -6.565664301139329e-29,
                -0.016265254467725754,
                0.10767050832509995,
                -0.014689951203763485,
                -0.28636693954467773,
                -0.18021751940250397
            ],
            [
                -0.13503798842430115,
                0.11871156096458435,
                -0.007033505477011204,
                -0.7821760177612305,
                0.5559578537940979,
                0.0649007111787796,
                0.21183839440345764,
                -0.3184552788734436,
                -0.07552964240312576,
                -0.0929512307047844,
                -9.500613017515342e-29,
                0.014024973846971989,
                0.06024555116891861,
                -0.06048173829913139,
                0.3573146462440491,
                0.059404511004686356
            ],
            [
                -0.11224614083766937,
                0.023811165243387222,
                -0.00651563610881567,
                -0.3023670017719269,
                -0.3345281183719635,
                -0.2269948124885559,
                0.03961074352264404,
                -0.036497265100479126,
                0.04565376788377762,
                -0.13900646567344666,
                8.121405834237925e-30,
                -1.8960703528136946e-05,
                0.22154882550239563,
                0.023884987458586693,
                0.193910613656044,
                0.1254216730594635
            ],
            [
                0.25648221373558044,
                -0.00037592960870824754,
                -0.0003524686908349395,
                -0.014659317210316658,
                0.15020737051963806,
                -0.16020333766937256,
                -0.011208247393369675,
                0.5174630284309387,
                0.059168294072151184,
                0.16324931383132935,
                6.820596773427425e-26,
                -0.005263943690806627,
                0.4755278527736664,
                0.2517020106315613,
                0.017755338922142982,
                -0.020645735785365105
            ],
            [
                0.0077996086329221725,
                0.2216557264328003,
                0.00017204348114319146,
                0.2070450484752655,
                -0.5181470513343811,
                -0.05821387469768524,
                -0.24415092170238495,
                -0.3785818815231323,
                0.17551195621490479,
                -0.14841784536838531,
                -7.786003930716673e-29,
                -0.03711162880063057,
                0.03213221952319145,
                0.050242144614458084,
                -0.1627996563911438,
                -0.04155868664383888
            ],
            [
                0.16126549243927002,
                -0.17110686004161835,
                -0.000616951787378639,
                -0.33086323738098145,
                -0.1291857659816742,
                -0.08301275968551636,
                -0.03981654345989227,
                0.12746267020702362,
                0.028694553300738335,
                -0.19489559531211853,
                2.0347993034880775e-29,
                6.434480019379407e-05,
                0.15833334624767303,
                0.15709884464740753,
                0.24775977432727814,
                -0.17301930487155914
            ],
            [
                -0.21303263306617737,
                -0.21159736812114716,
                -7.386133685665646e-22,
                0.09658066183328629,
                -0.25226378440856934,
                -0.27633023262023926,
                0.05773888900876045,
                0.8058003187179565,
                -0.000626089982688427,
                0.21621349453926086,
                -1.229345759479785e-28,
                -0.0002846802235580981,
                -0.2917892634868622,
                -0.2656472325325012,
                -0.24081164598464966,
                -0.1824944019317627
            ],
            [
                -0.30161458253860474,
                -0.14618198573589325,
                -9.418651461601257e-05,
                0.1720205843448639,
                0.42821112275123596,
                0.011939316056668758,
                0.04522796347737312,
                0.5089580416679382,
                0.03104500100016594,
                -0.04297791048884392,
                -4.7659017264823467e-29,
                -7.179662497946993e-05,
                -0.1629515290260315,
                -0.09925033897161484,
                0.1977347880601883,
                -0.19231054186820984
            ],
            [
                -0.09469377249479294,
                0.01590658910572529,
                -0.0033097921404987574,
                -0.3167310059070587,
                0.35947185754776,
                0.01119215041399002,
                -0.07424722611904144,
                -0.4365764856338501,
                -0.011068975552916527,
                0.04891820251941681,
                7.268917620332328e-29,
                -0.026110859587788582,
                -0.04199906811118126,
                0.005710523575544357,
                -0.1128440871834755,
                0.24617387354373932
            ],
            [
                0.13025671243667603,
                0.04403864964842796,
                -0.000708240841049701,
                0.18336080014705658,
                0.17094473540782928,
                -0.08666946738958359,
                -0.1377096325159073,
                0.6350334286689758,
                0.21019762754440308,
                -0.3217580318450928,
                6.157638588680772e-28,
                -0.0002496717788744718,
                0.08619359880685806,
                -0.031190456822514534,
                -0.3682297170162201,
                -0.23999418318271637
            ],
            [
                0.03026575781404972,
                -0.12811397016048431,
                -0.020738841965794563,
                0.15812762081623077,
                0.43282344937324524,
                -0.1684352308511734,
                0.21941883862018585,
                0.8079769015312195,
                0.14782963693141937,
                -0.07952314615249634,
                -2.118898109979126e-26,
                5.490146779289505e-29,
                0.15040861070156097,
                -0.2046446055173874,
                -0.10951963067054749,
                -0.007108831778168678
            ],
            [
                0.10135804861783981,
                0.24516481161117554,
                -0.00014377327170222998,
                0.24815675616264343,
                0.37951165437698364,
                -0.2071114480495453,
                -0.15071487426757812,
                0.45755282044410706,
                0.37798842787742615,
                -0.0666050836443901,
                8.295961892894355e-29,
                2.493169404260698e-07,
                0.1849956065416336,
                0.12749290466308594,
                0.2975398898124695,
                -0.07240944355726242
            ],
            [
                -0.265335351228714,
                0.27802643179893494,
                0.0006543691852129996,
                0.37368887662887573,
                0.341095894575119,
                0.30606892704963684,
                -0.11205122619867325,
                0.6384037733078003,
                0.3663051426410675,
                -0.14129208028316498,
                1.4641713883333827e-29,
                0.009862056002020836,
                -0.13871553540229797,
                -0.18293912708759308,
                -0.24850019812583923,
                -0.08604949712753296
            ],
            [
                0.06302282214164734,
                -0.18698695302009583,
                -0.005117140710353851,
                0.15721666812896729,
                -0.1297910213470459,
                -0.11817127466201782,
                0.1379741132259369,
                -0.4843602478504181,
                0.006347560789436102,
                -0.009808206930756569,
                3.923632376491046e-30,
                -0.0008207187056541443,
                0.36117419600486755,
                0.2397034913301468,
                0.027711285278201103,
                0.15408074855804443
            ],
            [
                0.07929112017154694,
                -0.08764110505580902,
                -0.01251576840877533,
                0.007745852693915367,
                -0.03928612545132637,
                0.0468546599149704,
                0.012420080602169037,
                0.1386149376630783,
                0.04404854401946068,
                0.027284469455480576,
                -1.507029047200521e-29,
                0.007847973145544529,
                -0.002522254129871726,
                -0.09601236134767532,
                -0.15469424426555634,
                -0.027465781196951866
            ],
            [
                -0.13781079649925232,
                0.07777846604585648,
                -0.001579633797518909,
                0.31531575322151184,
                -0.41150200366973877,
                -0.1894952803850174,
                -0.13125647604465485,
                -0.07381316274404526,
                -0.28351297974586487,
                0.042931776493787766,
                -5.491109142408591e-29,
                3.4844869463232836e-29,
                -0.038111962378025055,
                -0.04553118720650673,
                -0.08466441184282303,
                -0.0354892797768116
            ]
        ],
        "w2": [
            [
                0.19205006957054138,
                0.05648922920227051,
                -0.0008956395322456956,
                -0.42946892976760864,
                -0.5020096302032471,
                -0.23976264894008636,
                -0.027515115216374397,
                0.034036412835121155,
                -0.0816694125533104,
                -0.07857438176870346,
                -3.1460622355690047e-30,
                0.09946022927761078,
                -0.17518600821495056,
                0.013038784265518188,
                -0.10606613010168076,
                0.12673330307006836
            ],
            [
                -0.168470099568367,
                -0.019114121794700623,
                -6.047242095519323e-06,
                0.09638513624668121,
                0.25863996148109436,
                0.17473183572292328,
                -0.13276351988315582,
                -0.47582337260246277,
                0.2550114691257477,
                -0.029276201501488686,
                -2.1544919374865446e-29,
                0.01740270107984543,
                0.3132966458797455,
                -0.11056559532880783,
                -0.03005414828658104,
                0.2552618980407715
            ],
            [
                0.03508127108216286,
                0.13095693290233612,
                0.005612063687294722,
                0.05951622128486633,
                -0.38787296414375305,
                -0.32645365595817566,
                0.1533202826976776,
                0.6166929006576538,
                -0.10231980681419373,
                -0.189748153090477,
                2.703380316540861e-29,
                -0.002208637772127986,
                0.13880211114883423,
                0.10199248790740967,
                -0.14388859272003174,
                -0.225517138838768
            ],
            [
                0.3078327476978302,
                -0.0026362850330770016,
                0.012837941758334637,
                -1.1444365978240967,
                -0.3764776289463043,
                -0.3109245002269745,
                0.17810705304145813,
                0.43051275610923767,
                -0.028097975999116898,
                -0.04211968928575516,
                9.466014239769284e-27,
                0.09484167397022247,
                0.16451457142829895,
                0.025400564074516296,
                -0.03229779005050659,
                -0.20848388969898224
            ],
            [
                -0.04226968064904213,
                0.1759549230337143,
                0.008549929596483707,
                0.984571099281311,
                -0.24211415648460388,
                -0.20522911846637726,
                0.0702085867524147,
                0.06260226666927338,
                -0.25706541538238525,
                0.19178949296474457,
                -3.2109994775423275e-29,
                0.029400944709777832,
                -0.11672893911600113,
                -0.001965876203030348,
                -0.04928465187549591,
                0.055498648434877396
            ],
            [
                0.2918122112751007,
                0.08416112512350082,
                0.03814420476555824,
                0.026665296405553818,
                -0.5928801894187927,
                -0.13157546520233154,
                -0.0904981791973114,
                0.32013455033302307,
                0.09296777844429016,
                0.20424555242061615,
                3.403840134534837e-29,
                -0.02948138676583767,
                -0.016572272405028343,
                -0.08711141347885132,
                -0.05145983770489693,
                -0.03681330010294914
            ],
            [
                -0.0346602201461792,
                0.042283933609724045,
                -3.5150455462984453e-11,
                -0.13921953737735748,
                -0.4154760539531708,
                -0.4211631119251251,
                -0.04339146241545677,
                0.5573259592056274,
                -0.01204652525484562,
                -0.17407086491584778,
                8.839862564782539e-29,
                0.026916291564702988,
                -0.09302984923124313,
                0.16227960586547852,
                -0.23852699995040894,
                0.05441160500049591
            ],
            [
                0.004365372937172651,
                0.1646617203950882,
                -0.0056328061036765575,
                -0.4843962490558624,
                -0.3001698851585388,
                -0.038617294281721115,
                -0.07430565357208252,
                -0.3172753155231476,
                0.10628076642751694,
                -0.30744245648384094,
                3.8747646124912045e-29,
                -0.013667254708707333,
                0.281593382358551,
                0.2294258028268814,
                -0.0029915999621152878,
                -0.06830109655857086
            ],
            [
                0.03728313744068146,
                0.10164026916027069,
                -0.005665040109306574,
                -0.16809973120689392,
                0.3159785568714142,
                0.21109870076179504,
                0.27018654346466064,
                -0.8385839462280273,
                -0.1498936265707016,
                0.0532938614487648,
                -1.0298616673294225e-28,
                0.009385122917592525,
                0.2656456530094147,
                -0.159724161028862,
                0.24355176091194153,
                0.09781934320926666
            ],
            [
                0.021145379170775414,
                -0.18115638196468353,
                -1.5876656482769369e-21,
                -0.3075135350227356,
                -0.008509991690516472,
                0.06501062959432602,
                -0.0948103740811348,
                1.2446776628494263,
                0.18108606338500977,
                0.026622898876667023,
                -1.7241030788301477e-28,
                -0.000548286538105458,
                -0.3848341107368469,
                0.08364787697792053,
                -0.20480962097644806,
                -0.18617504835128784
            ],
            [
                -0.035951510071754456,
                -0.21864748001098633,
                -0.011385535821318626,
                -0.5551474690437317,
                -0.38766688108444214,
                -0.15306395292282104,
                0.2371874898672104,
                -0.4523819386959076,
                0.20747800171375275,
                -0.2394518256187439,
                -1.3215777500703878e-27,
                5.415189706224576e-28,
                0.07260917872190475,
                0.18210816383361816,
                0.037860263139009476,
                -0.22093360126018524
            ],
            [
                -0.026959167793393135,
                -0.12911027669906616,
                -0.0009387318277731538,
                -0.7570106387138367,
                0.04814266040921211,
                -0.12917259335517883,
                -0.11613228917121887,
                0.18921516835689545,
                0.08587569743394852,
                0.049694184213876724,
                4.0690894392471076e-29,
                2.6680612563723116e-07,
                0.1702854335308075,
                0.11582061648368835,
                -0.1523561179637909,
                -0.13030458986759186
            ],
            [
                -0.21030928194522858,
                0.1744174063205719,
                -0.002432286972180009,
                -0.43423017859458923,
                0.0531509630382061,
                0.282956600189209,
                0.07428298145532608,
                -0.062070805579423904,
                0.2276115119457245,
                -0.23870334029197693,
                2.7244560086635335e-29,
                0.04126418009400368,
                -0.1937146782875061,
                0.1280890703201294,
                0.10190528631210327,
                -0.19138045608997345
            ],
            [
                0.15650467574596405,
                0.14750976860523224,
                -0.02722204104065895,
                1.0517793893814087,
                0.15084069967269897,
                -0.08568021655082703,
                -0.12482507526874542,
                -0.1613461673259735,
                -0.06161310151219368,
                0.024750690907239914,
                2.4610890008137785e-29,
                0.007984994910657406,
                0.07566932588815689,
                -0.06658536195755005,
                -0.10513706505298615,
                -0.06291886419057846
            ],
            [
                -0.028658825904130936,
                0.19318409264087677,
                0.020512718707323074,
                -0.31568729877471924,
                -0.24939285218715668,
                0.09290206432342529,
                -0.13785503804683685,
                0.8604865074157715,
                0.15488752722740173,
                0.09867002069950104,
                1.0103705340684945e-29,
                -0.07764972001314163,
                -0.2500905394554138,
                -0.04140257462859154,
                -0.07228922098875046,
                0.07635830342769623
            ],
            [
                0.1561461091041565,
                -0.11316508799791336,
                -0.028380632400512695,
                1.0134425163269043,
                -0.04940267279744148,
                -0.2251671999692917,
                -0.2660510838031769,
                -0.7418264150619507,
                0.0181125495582819,
                0.016957556828856468,
                -3.978468717759166e-29,
                9.323695287264608e-29,
                0.15062393248081207,
                -0.09581171721220016,
                0.14598223567008972,
                0.13370466232299805
            ]
        ],
        "b": [
            0.05395994335412979,
            -0.040585707873106,
            0.03656959906220436,
            0.03377682343125343,
            0.01608608290553093,
            0.0074187894351780415,
            0.0494428426027298,
            -0.009880260564386845,
            -0.005868707783520222,
            0.032705798745155334,
            0.020346276462078094,
            -0.040857795625925064,
            0.0030448499601334333,
            0.002790022175759077,
            0.02800244651734829,
            -0.018006879836320877
        ],
        "activation": false
    },
    {
        "layer": "add_pool"
    },
    {
        "layer": "dense",
        "in_channels": 16,
        "out_channels": 6,
        "w": [
            [
                -0.03686673566699028,
                -0.1192060112953186,
                0.0726381465792656,
                0.055688656866550446,
                0.12643706798553467,
                0.08334983885288239,
                0.10647337883710861,
                -0.06198473647236824,
                -0.16778385639190674,
                0.039747536182403564,
                -0.0035865046083927155,
                -0.028391579166054726,
                -0.0766952782869339,
                -0.01029373612254858,
                0.06264428049325943,
                -0.15744277834892273
            ],
            [
                -0.13021735846996307,
                -0.034266818314790726,
                -0.04545225203037262,
                -0.14973968267440796,
                0.08293750882148743,
                0.018360527232289314,
                -0.04885238781571388,
                -0.09453962743282318,
                -0.05107812583446503,
                -0.12678411602973938,
                -0.13443689048290253,
                -0.1375526785850525,
                -0.050455354154109955,
                0.05403302609920502,
                -0.11364047229290009,
                0.14049965143203735
            ],
            [
                -0.19102369248867035,
                0.04133445769548416,
                -0.13684684038162231,
                -0.20984788239002228,
                -0.0919819250702858,
                -0.09846080094575882,
                -0.13314521312713623,
                -0.05452075973153114,
                0.09796639531850815,
                -0.10639764368534088,
                -0.10535664111375809,
                -0.08852928131818771,
                0.02373119257390499,
                -0.028852295130491257,
                -0.1530040055513382,
                -0.06746227294206619
            ],
            [
                -0.1364993155002594,
                -0.03258376568555832,
                0.08016876131296158,
                0.030580982565879822,
                -0.17073263227939606,
                0.10444679111242294,
                0.0760476142168045,
                0.11483481526374817,
                -0.19094589352607727,
                0.04047646000981331,
                0.22346849739551544,
                0.01143997348845005,
                0.2080356329679489,
                -0.1483299434185028,
                0.0706959217786789,
                -0.16536669433116913
            ],
            [
                -0.19300679862499237,
                0.025483733043074608,
                0.005193342920392752,
                0.05362292006611824,
                -0.05424090847373009,
                -0.0551687628030777,
                -0.0875149592757225,
                0.14371615648269653,
                0.04114760458469391,
                -0.16769008338451385,
                0.13661454617977142,
                -0.040289126336574554,
                -0.021900754421949387,
                -0.01884181797504425,
                -0.2700498700141907,
                -0.0019947367254644632
            ],
            [
                -0.08361876010894775,
                -0.11760491877794266,
                0.0376318022608757,
                -0.022114500403404236,
                -0.021596767008304596,
                0.01135640311986208,
                0.1272522509098053,
                0.10748573392629623,
                -0.21221274137496948,
                0.07145623862743378,
                0.20824342966079712,
                0.001724432222545147,
                0.2251676470041275,
                -0.03572168946266174,
                -0.010036156512796879,
                -0.11952710896730423
            ]
        ],
        "b": [
            -0.5757600665092468,
            0.4399622976779938,
            0.5146716833114624,
            -0.6343553066253662,
            0.03736330568790436,
            -0.26012611389160156
        ],
        "activation": false
    }
]